solver_type L2R_LR
nr_class 2
label 1 -1
nr_feature 72
bias -1
w
0.8338251134756184 
0.3628898864860754 
-0.08351986257663968 
-0.7125722391051382 
4.155399349561225 
-1.213882137378821 
-3.286331056884931 
0.001082508087621125 
-0.5349796936465961 
2.224743908478502 
-0.6729786432549045 
3.285022046918709 
1.176616959040677 
-0.808805893397667 
1.066167987390148 
1.806515673368976 
-4.499189584123835 
1.787944028647741 
3.349031421711453 
0.7417402550507943 
1.743668546636813 
3.486998037877077 
0.4315300977162839 
0.792438003096951 
-2.761097349316755 
1.10839409319465 
0.2845524756862081 
-1.388654326963158 
0.5293823444256748 
1.71787900566775 
-0.5372485698172286 
-3.998530619055477 
2.716588955952805 
-0.6669866924718229 
1.956444239269215 
-13.43568865083858 
7.827627766143296 
6.49977205637707 
1.05610158789635 
0.6313374972156995 
0.5159656254516655 
-0.9196155968320163 
4.608161550570816 
-1.980772202024652 
2.812495779139129 
-2.10810179914631 
2.390491221627816 
-1.487957617739428 
4.019104294971027 
-3.476398656614705 
-5.125494740841297 
3.755752948422784 
-1.862243102823913 
5.561779501592112 
3.092580554072864 
6.363184225818976 
-1.28056218404572 
-4.874369815714093 
0.1157269175242193 
-3.176773895134341 
0.9232557600931186 
1.649904168724195 
4.778108503003713 
-0.9210233013200341 
3.329394599484144 
2.629717880540447 
3.93323305235241 
-3.818748298041156 
3.766816547870238 
1.583444524528808 
0.8924956275270317 
-6.423884830485298 
